svm_type c_svc
kernel_type rbf
gamma 0.0769231
nr_class 2
total_sv 93
rho -0.74312
label 0 1
nr_sv 73 20
SV
0.2515850223431719 3:13 7:18 9:6 11:10 13:79 
0.2544663049461254 3:13 7:13 9:1 11:8 13:75 
0.2414394766690272 3:6 7:7 9:3 11:1 13:46 
0.2610860697564989 3:6 7:10 9:1 11:11 13:55 
0.2439788035381765 3:6 7:10 9:1 11:9 13:250 
0.2685347995510874 3:6 7:13 9:4 11:12 13:398 
0.1830522956000161 3:6 7:18 9:6 11:12 13:29 
0.254340585973487 3:6 7:14 9:4 11:11 13:28 
0.2442286865532486 3:6 7:33 9:1 11:10 13:37 
0.2362547203785899 3:6 7:18 9:6 11:12 13:160 
0.207251805869483 3:6 7:10 9:1 11:5 13:75 
0.1871054791243965 3:6 7:9 9:3 11:5 13:80 
0.2339622176055379 3:6 7:13 9:4 11:10 13:131 
0.2570629288167847 3:6 7:22 9:5 11:12 13:530 
0.1983572148089765 3:6 7:11 9:1 11:9 13:228 
0.2384074327962668 3:6 7:9 9:1 11:11 13:78 
1 3:6 7:8 9:2 11:10 13:95 
0.2355846595786657 3:6 7:1 9:1 11:5 13:75 
0.2661705024361758 3:6 7:1 9:1 11:11 13:130 
0.1495815640505659 3:6 7:6 9:1 11:5 13:78 
0.2608999110361579 3:6 7:10 9:1 11:11 13:138 
0.2574063131996878 3:6 7:4 9:1 11:11 13:215 
0.2234143312969924 3:6 7:1 9:1 11:5 13:20 
0.2510170485816997 3:6 7:6 9:1 11:10 13:68 
0.3050508462742844 3:6 7:5 9:1 11:11 13:22 
0.2433441215487017 3:6 7:4 9:2 11:10 13:250 
0.2568831540673197 3:6 7:13 9:4 11:10 13:560 
0.3923553506032062 3:6 7:10 9:1 11:5 13:110 
0.2454506406520708 3:6 7:18 9:6 11:10 13:36 
0.2354412741663428 3:6 7:18 9:6 11:9 13:130 
0.2565564128966116 3:6 7:34 9:1 11:5 13:27 
0.2564087163921115 3:6 7:34 9:1 11:1 13:50 
0.2508630562863204 3:6 7:1 9:1 11:6 13:43 
0.2549141577789187 3:6 7:1 9:1 11:5 13:57 
0.2451706452832611 3:6 7:33 9:4 11:9 13:48 
0.2347844858733072 3:6 7:23 9:5 11:13 13:25 
0.2568841342965575 3:6 7:27 9:6 11:13 13:280 
0.1682393708815592 3:6 7:9 9:3 11:11 13:230 
0.2573587168026089 3:6 7:9 9:1 11:1 13:120 
0.2564090305127844 3:6 7:14 9:4 11:11 13:12 
0.2796206907599566 3:6 7:3 9:1 11:5 13:25 
0.2316773936207596 3:6 7:34 9:1 11:11 13:43 
1 3:6 7:9 9:1 11:5 13:80 
0.2305743285259325 3:6 7:23 9:4 11:10 13:30 
0.2499137430956152 3:6 7:1 9:1 11:12 13:75 
0.2564195176119477 3:6 7:22 9:5 11:10 13:698 
0.1721292812942524 3:6 7:1 9:1 11:5 13:65 
0.223567131763355 3:6 7:1 9:1 11:5 13:90 
0.2689886015067295 3:6 7:9 9:3 11:11 13:120 
0.2563623803632344 3:6 7:33 9:4 11:9 13:94 
0.2568979100753037 3:6 7:33 9:1 11:14 13:80 
0.2250048222242906 3:6 7:13 9:4 11:10 13:159 
0.2263105785478871 3:6 7:13 9:4 11:14 13:230 
0.2547011072290077 3:6 7:25 9:5 11:10 13:100 
0.256621801704164 3:6 7:20 9:6 11:13 13:550 
1 3:6 7:18 9:6 11:13 13:12 
0.2528950602482986 3:6 7:18 9:6 11:12 13:80 
0.2567858714777889 3:6 7:25 9:5 11:10 13:150 
0.2417383939611781 3:6 7:8 9:2 11:5 13:685 
0.241522162845723 3:6 7:8 9:2 11:11 13:685 
0.2570533835861535 3:6 7:8 9:2 11:5 13:450 
0.2107500891486764 3:6 7:4 9:2 11:9 13:50 
0.223597542417708 3:6 7:1 9:1 11:5 13:85 
0.1845502603091141 3:6 7:5 9:1 11:5 13:49 
0.2592122094582527 3:6 7:5 9:1 11:5 13:35 
0.1597747442577017 3:6 7:1 9:1 11:5 13:68 
0.1968725007078723 3:6 7:13 9:4 11:14 13:165 
0.1825526293130819 3:6 7:13 9:4 11:10 13:165 
0.2553850326789199 3:6 7:19 9:5 11:9 13:95 
0.2570593007329041 3:6 7:19 9:5 11:10 13:500 
0.2570113239867881 3:6 7:20 9:5 11:10 13:420 
0.2499320526328033 3:6 7:24 9:5 11:10 13:39 
0.4032158650878143 3:6 7:24 9:5 11:12 13:200 
-1 3:13 7:23 9:5 11:13 13:33 
-1 3:13 7:18 9:6 11:2 13:6800 
-1 3:13 7:22 9:5 11:10 13:0 
-1 3:6 7:13 9:4 11:10 13:430 
-1 3:6 7:14 9:4 11:5 13:25 
-1 3:6 7:18 9:6 11:12 13:60 
-1 3:6 7:20 9:5 11:9 13:200 
-1 3:6 7:25 9:6 11:10 13:581 
-1 3:6 7:9 9:1 11:9 13:113 
-1 3:6 7:10 9:1 11:5 13:99 
-1 3:6 7:9 9:1 11:5 13:80 
-1 3:6 7:5 9:1 11:10 13:28 
-1 3:6 7:18 9:6 11:13 13:12 
-1 3:6 7:20 9:5 11:10 13:400 
-1 3:6 7:13 9:4 11:10 13:217 
-1 3:6 7:1 9:1 11:5 13:125 
-1 3:6 7:1 9:1 11:5 13:148 
-1 3:6 7:9 9:3 11:10 13:95 
-1 3:6 7:13 9:4 11:10 13:145 
-1 3:6 7:13 9:4 11:10 13:48 
